Language model created by QuickLM on Fri Apr 24 20:53:11 EDT 2020
Copyright (c) 1996-2010 Carnegie Mellon University and Alexander I. Rudnicky

The model is in standard ARPA format, designed by Doug Paul while he was at MITRE.

The code that was used to produce this language model is available in Open Source.
Please visit http://www.speech.cs.cmu.edu/tools/ for more information

The (fixed) discount mass is 0.5. The backoffs are computed using the ratio method.
This model based on a corpus of 28 sentences and 18 words

\data\
ngram 1=18
ngram 2=44
ngram 3=47

\1-grams:
-0.8709 </s> -0.3010
-0.8709 <s> -0.1978
-1.7160 BRIGHTNESS -0.2382
-1.6191 CHANGE -0.2617
-1.7160 COLOR -0.2382
-1.7160 HUE -0.2382
-2.3181 LAMP -0.2382
-2.3181 LAMPE -0.2382
-2.3181 LAMPEE -0.2382
-2.3181 LAMPI -0.2382
-1.8409 OFF -0.2382
-1.8409 ON -0.2382
-2.0170 POWER -0.2968
-1.7160 SATURATION -0.2382
-1.5399 SET -0.2525
-2.0170 SETTING -0.2382
-2.3181 TOGGLE -0.2968
-1.5399 TURN -0.2525

\2-grams:
-1.7482 <s> BRIGHTNESS 0.0000
-1.0492 <s> CHANGE 0.0000
-1.7482 <s> COLOR 0.0000
-1.7482 <s> HUE 0.0000
-1.7482 <s> LAMP 0.0000
-1.7482 <s> LAMPE 0.0000
-1.7482 <s> LAMPEE 0.0000
-1.7482 <s> LAMPI 0.0000
-1.7482 <s> OFF 0.0000
-1.7482 <s> ON 0.0000
-1.7482 <s> SATURATION 0.0000
-0.9700 <s> SET 0.0000
-1.7482 <s> TOGGLE 0.0000
-0.9700 <s> TURN 0.0000
-0.3010 BRIGHTNESS </s> -0.3010
-1.0000 CHANGE BRIGHTNESS 0.0000
-1.0000 CHANGE COLOR 0.0000
-1.0000 CHANGE HUE 0.0000
-1.0000 CHANGE POWER 0.0000
-1.0000 CHANGE SATURATION 0.0000
-0.3010 COLOR </s> -0.3010
-0.3010 HUE </s> -0.3010
-0.3010 LAMP </s> -0.3010
-0.3010 LAMPE </s> -0.3010
-0.3010 LAMPEE </s> -0.3010
-0.3010 LAMPI </s> -0.3010
-0.3010 OFF </s> -0.3010
-0.3010 ON </s> -0.3010
-0.3010 POWER SETTING 0.0000
-0.3010 SATURATION </s> -0.3010
-1.0792 SET BRIGHTNESS 0.0000
-1.0792 SET COLOR 0.0000
-1.0792 SET HUE 0.0000
-1.0792 SET OFF 0.0000
-1.0792 SET ON 0.0000
-1.0792 SET SATURATION 0.0000
-0.3010 SETTING </s> -0.3010
-0.3010 TOGGLE POWER 0.0000
-1.0792 TURN BRIGHTNESS 0.0000
-1.0792 TURN COLOR 0.0000
-1.0792 TURN HUE 0.0000
-1.0792 TURN OFF 0.0000
-1.0792 TURN ON 0.0000
-1.0792 TURN SATURATION 0.0000

\3-grams:
-0.3010 <s> BRIGHTNESS </s>
-1.0000 <s> CHANGE BRIGHTNESS
-1.0000 <s> CHANGE COLOR
-1.0000 <s> CHANGE HUE
-1.0000 <s> CHANGE POWER
-1.0000 <s> CHANGE SATURATION
-0.3010 <s> COLOR </s>
-0.3010 <s> HUE </s>
-0.3010 <s> LAMP </s>
-0.3010 <s> LAMPE </s>
-0.3010 <s> LAMPEE </s>
-0.3010 <s> LAMPI </s>
-0.3010 <s> OFF </s>
-0.3010 <s> ON </s>
-0.3010 <s> SATURATION </s>
-1.0792 <s> SET BRIGHTNESS
-1.0792 <s> SET COLOR
-1.0792 <s> SET HUE
-1.0792 <s> SET OFF
-1.0792 <s> SET ON
-1.0792 <s> SET SATURATION
-0.3010 <s> TOGGLE POWER
-1.0792 <s> TURN BRIGHTNESS
-1.0792 <s> TURN COLOR
-1.0792 <s> TURN HUE
-1.0792 <s> TURN OFF
-1.0792 <s> TURN ON
-1.0792 <s> TURN SATURATION
-0.3010 CHANGE BRIGHTNESS </s>
-0.3010 CHANGE COLOR </s>
-0.3010 CHANGE HUE </s>
-0.3010 CHANGE POWER SETTING
-0.3010 CHANGE SATURATION </s>
-0.3010 POWER SETTING </s>
-0.3010 SET BRIGHTNESS </s>
-0.3010 SET COLOR </s>
-0.3010 SET HUE </s>
-0.3010 SET OFF </s>
-0.3010 SET ON </s>
-0.3010 SET SATURATION </s>
-0.3010 TOGGLE POWER SETTING
-0.3010 TURN BRIGHTNESS </s>
-0.3010 TURN COLOR </s>
-0.3010 TURN HUE </s>
-0.3010 TURN OFF </s>
-0.3010 TURN ON </s>
-0.3010 TURN SATURATION </s>

\end\
