Language model created by QuickLM on Sun Apr 26 16:05:44 EDT 2020
Copyright (c) 1996-2010 Carnegie Mellon University and Alexander I. Rudnicky

The model is in standard ARPA format, designed by Doug Paul while he was at MITRE.

The code that was used to produce this language model is available in Open Source.
Please visit http://www.speech.cs.cmu.edu/tools/ for more information

The (fixed) discount mass is 0.5. The backoffs are computed using the ratio method.
This model based on a corpus of 232 sentences and 50 words

\data\
ngram 1=50
ngram 2=112
ngram 3=165

\1-grams:
-2.1185 0.1 -0.2727
-2.8666 0.2 -0.2727
-2.8666 0.3 -0.2727
-2.8666 0.4 -0.2727
-2.8666 0.5 -0.2727
-2.8666 0.6 -0.2727
-2.8666 0.7 -0.2727
-2.8666 0.8 -0.2727
-2.8666 0.9 -0.2727
-1.2001 </s> -0.3010
-1.2001 <s> -0.2632
-3.5656 AQUAMARINE -0.2727
-2.7875 BLUE -0.2727
-2.0093 BRIGHTNESS -0.2775
-1.6413 CHANGE -0.2454
-1.9424 COLOR -0.2775
-3.5656 CYAN -0.2727
-2.8666 EIGHT -0.2727
-2.8666 FIVE -0.2727
-2.8666 FOUR -0.2727
-2.7875 GREEN -0.2727
-1.6906 HEY -0.2727
-1.7594 HUE -0.2775
-2.1506 LAMP -0.2417
-1.2001 LAMPI -0.2727
-3.5656 MAGENTA -0.2727
-2.8666 NINE -0.2727
-2.2232 OFF -0.2727
-2.2232 ON -0.2727
-2.1185 ONE -0.2727
-2.7875 ORANGE -0.2727
-3.5656 PINK -0.2727
-1.7331 POINT -0.2929
-2.5656 POWER -0.2672
-2.7875 PURPLE -0.2727
-2.7875 RED -0.2727
-2.0093 SATURATION -0.2775
-1.6114 SET -0.2618
-2.8666 SEVEN -0.2727
-2.8666 SIX -0.2727
-3.5656 TAN -0.2727
-1.7205 THE -0.2802
-2.8666 THREE -0.2727
-1.2778 TO -0.2740
-2.6625 TOGGLE -0.2638
-1.8666 TURN -0.2131
-2.8666 TWO -0.2727
-3.5656 WHITE -0.2727
-2.7875 YELLOW -0.2727
-1.7331 ZERO -0.2929

\2-grams:
-0.3010 0.1 </s> -0.3010
-0.3010 0.2 </s> -0.3010
-0.3010 0.3 </s> -0.3010
-0.3010 0.4 </s> -0.3010
-0.3010 0.5 </s> -0.3010
-0.3010 0.6 </s> -0.3010
-0.3010 0.7 </s> -0.3010
-0.3010 0.8 </s> -0.3010
-0.3010 0.9 </s> -0.3010
-0.7915 <s> HEY 0.0000
-0.4706 <s> LAMPI 0.0000
-0.3010 AQUAMARINE </s> -0.3010
-0.3010 BLUE </s> -0.3010
-0.3010 BRIGHTNESS TO -0.1136
-1.6232 CHANGE BRIGHTNESS 0.0000
-1.1461 CHANGE COLOR 0.0000
-0.9243 CHANGE HUE 0.0000
-1.6232 CHANGE SATURATION 0.0000
-0.6232 CHANGE THE 0.0000
-1.6232 CHANGE TO -0.2827
-0.3010 COLOR TO -0.2513
-0.3010 CYAN </s> -0.3010
-0.3010 EIGHT </s> -0.3010
-0.3010 FIVE </s> -0.3010
-0.3010 FOUR </s> -0.3010
-0.3010 GREEN </s> -0.3010
-0.3010 HEY LAMPI 0.0000
-0.3010 HUE TO -0.1136
-1.4150 LAMP </s> -0.3010
-0.8129 LAMP OFF 0.0000
-0.8129 LAMP ON 0.0000
-0.8129 LAMP TO -0.2827
-0.7422 LAMPI CHANGE 0.0000
-0.7123 LAMPI SET 0.0000
-1.7634 LAMPI TOGGLE 0.0000
-0.9675 LAMPI TURN 0.0000
-0.3010 MAGENTA </s> -0.3010
-0.3010 NINE </s> -0.3010
-0.3010 OFF </s> -0.3010
-0.3010 ON </s> -0.3010
-0.3010 ONE </s> -0.3010
-0.3010 ORANGE </s> -0.3010
-0.3010 PINK </s> -0.3010
-1.4346 POINT EIGHT 0.0000
-1.4346 POINT FIVE 0.0000
-1.4346 POINT FOUR 0.0000
-1.4346 POINT NINE 0.0000
-0.6864 POINT ONE 0.0000
-1.4346 POINT SEVEN 0.0000
-1.4346 POINT SIX 0.0000
-1.4346 POINT THREE 0.0000
-1.4346 POINT TWO 0.0000
-1.0000 POWER </s> -0.3010
-0.6990 POWER OFF 0.0000
-0.6990 POWER ON 0.0000
-0.3010 PURPLE </s> -0.3010
-0.3010 RED </s> -0.3010
-0.3010 SATURATION TO -0.1136
-0.9542 SET BRIGHTNESS 0.0000
-1.0000 SET COLOR 0.0000
-0.9542 SET HUE 0.0000
-1.6532 SET LAMP -0.1413
-1.9542 SET OFF 0.0000
-1.9542 SET ON 0.0000
-0.9542 SET SATURATION 0.0000
-1.6532 SET THE -0.2268
-0.3010 SEVEN </s> -0.3010
-0.3010 SIX </s> -0.3010
-0.3010 TAN </s> -0.3010
-1.2430 THE BRIGHTNESS 0.0000
-0.8037 THE HUE 0.0000
-0.8037 THE LAMP 0.0000
-1.1461 THE POWER 0.0000
-1.2430 THE SATURATION 0.0000
-0.3010 THREE </s> -0.3010
-1.1417 TO 0.1 0.0000
-1.8899 TO 0.2 0.0000
-1.8899 TO 0.3 0.0000
-1.8899 TO 0.4 0.0000
-1.8899 TO 0.5 0.0000
-1.8899 TO 0.6 0.0000
-1.8899 TO 0.7 0.0000
-1.8899 TO 0.8 0.0000
-1.8899 TO 0.9 0.0000
-2.5888 TO AQUAMARINE 0.0000
-1.8107 TO BLUE 0.0000
-2.5888 TO CYAN 0.0000
-1.8107 TO GREEN 0.0000
-2.5888 TO MAGENTA 0.0000
-1.6857 TO OFF 0.0000
-1.6857 TO ON 0.0000
-1.8107 TO ORANGE 0.0000
-2.5888 TO PINK 0.0000
-1.8107 TO PURPLE 0.0000
-1.8107 TO RED 0.0000
-2.5888 TO TAN 0.0000
-2.5888 TO WHITE 0.0000
-1.8107 TO YELLOW 0.0000
-0.7563 TO ZERO 0.0000
-0.6021 TOGGLE </s> -0.3010
-0.6021 TOGGLE THE -0.1883
-1.6990 TURN </s> -0.3010
-1.3979 TURN BRIGHTNESS 0.0000
-0.9208 TURN COLOR 0.0000
-1.6990 TURN HUE 0.0000
-1.3979 TURN SATURATION 0.0000
-0.6576 TURN THE 0.0000
-1.3979 TURN TO -0.2827
-0.3010 TWO </s> -0.3010
-0.3010 WHITE </s> -0.3010
-0.3010 YELLOW </s> -0.3010
-0.3010 ZERO POINT 0.0000

\3-grams:
-0.3010 <s> HEY LAMPI
-0.7335 <s> LAMPI CHANGE
-0.6396 <s> LAMPI SET
-1.8949 <s> LAMPI TOGGLE
-1.1352 <s> LAMPI TURN
-0.8573 BRIGHTNESS TO 0.1
-1.8573 BRIGHTNESS TO 0.2
-1.8573 BRIGHTNESS TO 0.3
-1.8573 BRIGHTNESS TO 0.4
-1.8573 BRIGHTNESS TO 0.5
-1.8573 BRIGHTNESS TO 0.6
-1.8573 BRIGHTNESS TO 0.7
-1.8573 BRIGHTNESS TO 0.8
-1.8573 BRIGHTNESS TO 0.9
-0.6021 BRIGHTNESS TO ZERO
-0.3010 CHANGE BRIGHTNESS TO
-0.3010 CHANGE COLOR TO
-0.3010 CHANGE HUE TO
-0.3010 CHANGE SATURATION TO
-1.3010 CHANGE THE BRIGHTNESS
-0.6021 CHANGE THE HUE
-1.0000 CHANGE THE LAMP
-1.3010 CHANGE THE POWER
-1.3010 CHANGE THE SATURATION
-0.6021 CHANGE TO OFF
-0.6021 CHANGE TO ON
-1.9243 COLOR TO AQUAMARINE
-1.1461 COLOR TO BLUE
-1.9243 COLOR TO CYAN
-1.1461 COLOR TO GREEN
-1.9243 COLOR TO MAGENTA
-1.1461 COLOR TO ORANGE
-1.9243 COLOR TO PINK
-1.1461 COLOR TO PURPLE
-1.1461 COLOR TO RED
-1.9243 COLOR TO TAN
-1.9243 COLOR TO WHITE
-1.1461 COLOR TO YELLOW
-0.7611 HEY LAMPI CHANGE
-0.9208 HEY LAMPI SET
-1.5740 HEY LAMPI TOGGLE
-0.7447 HEY LAMPI TURN
-1.2041 HUE TO 0.1
-1.6301 HUE TO 0.2
-1.6301 HUE TO 0.3
-1.6301 HUE TO 0.4
-1.6301 HUE TO 0.5
-1.6301 HUE TO 0.6
-1.6301 HUE TO 0.7
-1.6301 HUE TO 0.8
-1.6301 HUE TO 0.9
-0.6021 HUE TO ZERO
-0.3010 LAMP OFF </s>
-0.3010 LAMP ON </s>
-0.6021 LAMP TO OFF
-0.6021 LAMP TO ON
-1.6232 LAMPI CHANGE BRIGHTNESS
-1.1461 LAMPI CHANGE COLOR
-0.9243 LAMPI CHANGE HUE
-1.6232 LAMPI CHANGE SATURATION
-0.6232 LAMPI CHANGE THE
-1.6232 LAMPI CHANGE TO
-0.9542 LAMPI SET BRIGHTNESS
-1.0000 LAMPI SET COLOR
-0.9542 LAMPI SET HUE
-1.6532 LAMPI SET LAMP
-1.9542 LAMPI SET OFF
-1.9542 LAMPI SET ON
-0.9542 LAMPI SET SATURATION
-1.6532 LAMPI SET THE
-0.6021 LAMPI TOGGLE </s>
-0.6021 LAMPI TOGGLE THE
-1.6990 LAMPI TURN </s>
-1.3979 LAMPI TURN BRIGHTNESS
-0.9208 LAMPI TURN COLOR
-1.6990 LAMPI TURN HUE
-1.3979 LAMPI TURN SATURATION
-0.6576 LAMPI TURN THE
-1.3979 LAMPI TURN TO
-0.3010 POINT EIGHT </s>
-0.3010 POINT FIVE </s>
-0.3010 POINT FOUR </s>
-0.3010 POINT NINE </s>
-0.3010 POINT ONE </s>
-0.3010 POINT SEVEN </s>
-0.3010 POINT SIX </s>
-0.3010 POINT THREE </s>
-0.3010 POINT TWO </s>
-0.3010 POWER OFF </s>
-0.3010 POWER ON </s>
-0.8573 SATURATION TO 0.1
-1.8573 SATURATION TO 0.2
-1.8573 SATURATION TO 0.3
-1.8573 SATURATION TO 0.4
-1.8573 SATURATION TO 0.5
-1.8573 SATURATION TO 0.6
-1.8573 SATURATION TO 0.7
-1.8573 SATURATION TO 0.8
-1.8573 SATURATION TO 0.9
-0.6021 SATURATION TO ZERO
-0.3010 SET BRIGHTNESS TO
-0.3010 SET COLOR TO
-0.3010 SET HUE TO
-0.6021 SET LAMP OFF
-0.6021 SET LAMP ON
-0.3010 SET OFF </s>
-0.3010 SET ON </s>
-0.3010 SET SATURATION TO
-0.3010 SET THE LAMP
-0.3010 THE BRIGHTNESS TO
-0.3010 THE HUE TO
-1.3424 THE LAMP </s>
-0.8653 THE LAMP OFF
-0.8653 THE LAMP ON
-0.7404 THE LAMP TO
-1.0000 THE POWER </s>
-0.6990 THE POWER OFF
-0.6990 THE POWER ON
-0.3010 THE SATURATION TO
-0.3010 TO 0.1 </s>
-0.3010 TO 0.2 </s>
-0.3010 TO 0.3 </s>
-0.3010 TO 0.4 </s>
-0.3010 TO 0.5 </s>
-0.3010 TO 0.6 </s>
-0.3010 TO 0.7 </s>
-0.3010 TO 0.8 </s>
-0.3010 TO 0.9 </s>
-0.3010 TO AQUAMARINE </s>
-0.3010 TO BLUE </s>
-0.3010 TO CYAN </s>
-0.3010 TO GREEN </s>
-0.3010 TO MAGENTA </s>
-0.3010 TO OFF </s>
-0.3010 TO ON </s>
-0.3010 TO ORANGE </s>
-0.3010 TO PINK </s>
-0.3010 TO PURPLE </s>
-0.3010 TO RED </s>
-0.3010 TO TAN </s>
-0.3010 TO WHITE </s>
-0.3010 TO YELLOW </s>
-0.3010 TO ZERO POINT
-0.6021 TOGGLE THE LAMP
-0.6021 TOGGLE THE POWER
-0.3010 TURN BRIGHTNESS TO
-0.3010 TURN COLOR TO
-0.3010 TURN HUE TO
-0.3010 TURN SATURATION TO
-1.0414 TURN THE BRIGHTNESS
-1.3424 TURN THE HUE
-0.7404 TURN THE LAMP
-1.0414 TURN THE POWER
-1.0414 TURN THE SATURATION
-0.6021 TURN TO OFF
-0.6021 TURN TO ON
-1.4346 ZERO POINT EIGHT
-1.4346 ZERO POINT FIVE
-1.4346 ZERO POINT FOUR
-1.4346 ZERO POINT NINE
-0.6864 ZERO POINT ONE
-1.4346 ZERO POINT SEVEN
-1.4346 ZERO POINT SIX
-1.4346 ZERO POINT THREE
-1.4346 ZERO POINT TWO

\end\
