Language model created by QuickLM on Sat Apr 25 18:01:14 EDT 2020
Copyright (c) 1996-2010 Carnegie Mellon University and Alexander I. Rudnicky

The model is in standard ARPA format, designed by Doug Paul while he was at MITRE.

The code that was used to produce this language model is available in Open Source.
Please visit http://www.speech.cs.cmu.edu/tools/ for more information

The (fixed) discount mass is 0.5. The backoffs are computed using the ratio method.
This model based on a corpus of 150 sentences and 28 words

\data\
ngram 1=28
ngram 2=68
ngram 3=105

\1-grams:
-1.8939 0.1 -0.2724
-1.1950 </s> -0.3010
-1.1950 <s> -0.2573
-2.5929 BLUE -0.2724
-2.0700 BRIGHTNESS -0.2798
-1.6551 CHANGE -0.2493
-1.8148 COLOR -0.2798
-2.5929 GREEN -0.2724
-1.4960 HEY -0.2724
-2.0700 HUE -0.2798
-1.9561 LAMP -0.2404
-1.1950 LAMPI -0.2724
-2.0286 OFF -0.2724
-2.0286 ON -0.2724
-1.8939 ONE -0.2724
-2.5929 ORANGE -0.2724
-1.8939 POINT -0.2955
-2.3711 POWER -0.2636
-2.5929 PURPLE -0.2724
-2.5929 RED -0.2724
-2.0700 SATURATION -0.2798
-1.8148 SET -0.2579
-1.6229 THE -0.2829
-1.3218 TO -0.2744
-2.4680 TOGGLE -0.2612
-1.6387 TURN -0.2169
-2.5929 YELLOW -0.2724
-1.8939 ZERO -0.2955

\2-grams:
-0.3010 0.1 </s> -0.3010
-0.6021 <s> HEY 0.0000
-0.6021 <s> LAMPI 0.0000
-0.3010 BLUE </s> -0.3010
-0.3010 BRIGHTNESS TO -0.1656
-1.4150 CHANGE BRIGHTNESS 0.0000
-0.9379 CHANGE COLOR 0.0000
-1.4150 CHANGE HUE 0.0000
-1.4150 CHANGE SATURATION 0.0000
-0.6368 CHANGE THE 0.0000
-1.4150 CHANGE TO -0.2688
-0.3010 COLOR TO -0.2249
-0.3010 GREEN </s> -0.3010
-0.3010 HEY LAMPI 0.0000
-0.3010 HUE TO -0.1656
-1.4150 LAMP </s> -0.3010
-0.8129 LAMP OFF 0.0000
-0.8129 LAMP ON 0.0000
-0.8129 LAMP TO -0.2688
-0.7611 LAMPI CHANGE -0.0000
-0.9208 LAMPI SET 0.0000
-1.5740 LAMPI TOGGLE 0.0000
-0.7447 LAMPI TURN 0.0000
-0.3010 OFF </s> -0.3010
-0.3010 ON </s> -0.3010
-0.3010 ONE </s> -0.3010
-0.3010 ORANGE </s> -0.3010
-0.3010 POINT ONE 0.0000
-1.0000 POWER </s> -0.3010
-0.6990 POWER OFF 0.0000
-0.6990 POWER ON 0.0000
-0.3010 PURPLE </s> -0.3010
-0.3010 RED </s> -0.3010
-0.3010 SATURATION TO -0.1656
-1.2553 SET BRIGHTNESS 0.0000
-0.7782 SET COLOR 0.0000
-1.2553 SET HUE 0.0000
-1.2553 SET LAMP -0.1413
-1.5563 SET OFF 0.0000
-1.5563 SET ON 0.0000
-1.2553 SET SATURATION 0.0000
-1.2553 SET THE -0.2061
-1.1461 THE BRIGHTNESS 0.0000
-1.1461 THE HUE 0.0000
-0.7068 THE LAMP 0.0000
-1.0492 THE POWER 0.0000
-1.1461 THE SATURATION 0.0000
-0.8731 TO 0.1 0.0000
-1.5721 TO BLUE 0.0000
-1.5721 TO GREEN 0.0000
-1.4472 TO OFF 0.0000
-1.4472 TO ON 0.0000
-1.5721 TO ORANGE 0.0000
-1.5721 TO PURPLE 0.0000
-1.5721 TO RED 0.0000
-1.5721 TO YELLOW 0.0000
-0.8731 TO ZERO 0.0000
-0.6021 TOGGLE </s> -0.3010
-0.6021 TOGGLE THE -0.1549
-1.7324 TURN </s> -0.3010
-1.4314 TURN BRIGHTNESS 0.0000
-0.9542 TURN COLOR 0.0000
-1.4314 TURN HUE 0.0000
-1.4314 TURN SATURATION 0.0000
-0.6532 TURN THE 0.0000
-1.4314 TURN TO -0.2688
-0.3010 YELLOW </s> -0.3010
-0.3010 ZERO POINT 0.0000

\3-grams:
-0.3010 <s> HEY LAMPI
-0.7611 <s> LAMPI CHANGE
-0.9208 <s> LAMPI SET
-1.5740 <s> LAMPI TOGGLE
-0.7447 <s> LAMPI TURN
-0.6021 BRIGHTNESS TO 0.1
-0.6021 BRIGHTNESS TO ZERO
-0.3010 CHANGE BRIGHTNESS TO
-0.3010 CHANGE COLOR TO
-0.3010 CHANGE HUE TO
-0.3010 CHANGE SATURATION TO
-1.0792 CHANGE THE BRIGHTNESS
-1.0792 CHANGE THE HUE
-0.7782 CHANGE THE LAMP
-1.0792 CHANGE THE POWER
-1.0792 CHANGE THE SATURATION
-0.6021 CHANGE TO OFF
-0.6021 CHANGE TO ON
-1.0792 COLOR TO BLUE
-1.0792 COLOR TO GREEN
-1.0792 COLOR TO ORANGE
-1.0792 COLOR TO PURPLE
-1.0792 COLOR TO RED
-1.0792 COLOR TO YELLOW
-0.7611 HEY LAMPI CHANGE
-0.9208 HEY LAMPI SET
-1.5740 HEY LAMPI TOGGLE
-0.7447 HEY LAMPI TURN
-0.6021 HUE TO 0.1
-0.6021 HUE TO ZERO
-0.3010 LAMP OFF </s>
-0.3010 LAMP ON </s>
-0.6021 LAMP TO OFF
-0.6021 LAMP TO ON
-1.4150 LAMPI CHANGE BRIGHTNESS
-0.9379 LAMPI CHANGE COLOR
-1.4150 LAMPI CHANGE HUE
-1.4150 LAMPI CHANGE SATURATION
-0.6368 LAMPI CHANGE THE
-1.4150 LAMPI CHANGE TO
-1.2553 LAMPI SET BRIGHTNESS
-0.7782 LAMPI SET COLOR
-1.2553 LAMPI SET HUE
-1.2553 LAMPI SET LAMP
-1.5563 LAMPI SET OFF
-1.5563 LAMPI SET ON
-1.2553 LAMPI SET SATURATION
-1.2553 LAMPI SET THE
-0.6021 LAMPI TOGGLE </s>
-0.6021 LAMPI TOGGLE THE
-1.7324 LAMPI TURN </s>
-1.4314 LAMPI TURN BRIGHTNESS
-0.9542 LAMPI TURN COLOR
-1.4314 LAMPI TURN HUE
-1.4314 LAMPI TURN SATURATION
-0.6532 LAMPI TURN THE
-1.4314 LAMPI TURN TO
-0.3010 POINT ONE </s>
-0.3010 POWER OFF </s>
-0.3010 POWER ON </s>
-0.6021 SATURATION TO 0.1
-0.6021 SATURATION TO ZERO
-0.3010 SET BRIGHTNESS TO
-0.3010 SET COLOR TO
-0.3010 SET HUE TO
-0.6021 SET LAMP OFF
-0.6021 SET LAMP ON
-0.3010 SET OFF </s>
-0.3010 SET ON </s>
-0.3010 SET SATURATION TO
-0.3010 SET THE LAMP
-0.3010 THE BRIGHTNESS TO
-0.3010 THE HUE TO
-1.3424 THE LAMP </s>
-0.8653 THE LAMP OFF
-0.8653 THE LAMP ON
-0.7404 THE LAMP TO
-1.0000 THE POWER </s>
-0.6990 THE POWER OFF
-0.6990 THE POWER ON
-0.3010 THE SATURATION TO
-0.3010 TO 0.1 </s>
-0.3010 TO BLUE </s>
-0.3010 TO GREEN </s>
-0.3010 TO OFF </s>
-0.3010 TO ON </s>
-0.3010 TO ORANGE </s>
-0.3010 TO PURPLE </s>
-0.3010 TO RED </s>
-0.3010 TO YELLOW </s>
-0.3010 TO ZERO POINT
-0.6021 TOGGLE THE LAMP
-0.6021 TOGGLE THE POWER
-0.3010 TURN BRIGHTNESS TO
-0.3010 TURN COLOR TO
-0.3010 TURN HUE TO
-0.3010 TURN SATURATION TO
-1.0792 TURN THE BRIGHTNESS
-1.0792 TURN THE HUE
-0.7782 TURN THE LAMP
-1.0792 TURN THE POWER
-1.0792 TURN THE SATURATION
-0.6021 TURN TO OFF
-0.6021 TURN TO ON
-0.3010 ZERO POINT ONE

\end\
